
b1
[ 0.93	-0.906	-0.354	0.422	0.607	0.214	0.848	0.361	0.566	-0.644	-0.458	-0.54	0.504	-0.591	0.731	-0.798	-0.886	-0.194	-0.499	0.099	-0.782	-0.59	0.854	-0.676	0.179	-0.93	0.156	0.568	-0.697	0.548	-0.028	-0.889	-0.81	0.448	0.665	-0.315	0.377	0.239	0.054	0.34	0.189	-0.938	-0.13	0.063	0.551	0.812	0.65	0.208	0.904	-0.643	]

b2
[ -0.135843630593102	-1.1348435089256501	-0.8716219685615775	-1.12892014576244	-1.1050015435796567	-0.031099885816895965	0.8624873388560236	-1.031085856770091	-0.7890305389733853	-0.8571123688307465	0.1292393772320259	-0.5752106479689004	0.1394119837778723	-0.2705332347045257	-0.4130058117227425	-0.06248619011246976	-0.2307231868950096	-0.09481290469350374	-0.5155652279190454	0.6046518107637567	]

b3
[ -0.1357653742921085	0.7016041497708463	-0.008069175304422338	0.2599945691715675	0.035052108076787596	-0.19487242854735404	0.0971672793118681	0.061056843283926146	-0.20617332995151857	-0.11899464151959784	]

w1
[ 